400000 200
the -0.0127182571993 0.0166128890633 0.00421956965713 -0.0160582906418 0.00997619461906 0.0578542141843 -0.0707397396896 -0.0163782512696 0.0108752839832 -0.0336847438717 0.0232166986653 0.0255061947132 0.00204046002587 0.0678280979766 0.0960415151128 -0.0250422518029 0.0432213481393 0.0409478501229 -0.0983683399006 0.0085596578174 0.081166901038 0.574827043442 0.00359049151169 0.00871341667465 -0.00251204644008 0.0135124705799 -0.0204899230928 0.0356578344098 -0.013803990263 0.0432444564069 0.0290950864217 -0.0606467594414 -0.0117443325995 0.0180457794082 0.00679596373458 -0.0314059131781 -0.156697162349 -0.0602503637747 -0.00630695724175 -0.097934615494 -0.00300389702738 -0.0781806018451 0.00693319129273 0.0718969306268 -0.0460032280422 0.114819648847 0.0473559504742 0.0497876512455 -0.00437723914428 0.112523042563 -0.0563486216745 0.0182573089344 0.0549016886133 0.0173831053968 -0.0679507495506 0.0153851290321 0.00836785919662 0.0417921906685 -0.0571076393861 -0.0507279799794 0.0296319092528 -0.000883571273684 -0.111477837845 -0.0442683304159 0.0528166118554 0.0255595214845 -0.0219084152094 -0.0103414830025 -0.000182910825562 -0.0145983813995 0.0656541432665 -0.000103884105612 0.0609453893607 0.0505288933666 -0.0121938772816 0.116869174424 -0.00517038598942 0.0287680155578 0.0130956329843 -0.0539364740527 0.0170171059898 -0.0939617710321 -0.0407025469749 0.011390420594 0.00270508935219 0.0620741393532 -0.0781414955462 -0.0781823794042 0.137787489246 -0.156011024559 -0.015554352653 0.070387782999 0.110852137062 -0.0465916000855 -0.0542848756252 -0.00408198658717 0.0543346472784 0.0120269644874 0.027344190764 -0.0199282144351 -0.0162717754829 0.0146758829738 0.0300354151557 -0.00585741255968 -0.0511492614727 -0.0396751178478 -0.0160737554055 0.22054175051 -0.0324297871871 -0.00133706213683 -0.00735696136866 -0.00197006868776 0.0138980231364 0.0684555763189 0.0414775627178 0.025621736051 -0.000161882302079 -0.0469062280362 -0.0364061867671 0.0179515687789 0.0250209210944 0.0512541374563 -0.00807527297809 0.0662087416881 0.0242547931467 -0.119908800388 0.040503460362 0.0223954663873 0.00517109701304 0.00540875665714 -0.0231580392169 0.0344988659136 0.0871252789513 -0.0695398873353 -0.0135009164461 0.0132838764869 0.0335994210376 -0.0300798541318 -0.0462503087492 -0.00706953007135 -0.0429333835743 0.0193309545966 0.0540982319257 0.00640081235924 0.253551021945 0.0226798758342 -0.013120341055 -0.0362942005473 0.00142233164414 0.0273406356459 0.0359475765339 0.050258704392 0.0171011845326 -0.0597864208644 0.0906252927077 0.0579928637897 -0.0471675292156 0.0664807082217 -0.0540164642097 -0.0711610211829 -0.00762750585506 -0.0120690926367 -0.0521393618599 0.019514043178 -0.00806389660021 0.0412784761049 -0.055342523256 -0.0515189937537 -0.118540079925 0.0943830525253 0.0345930765429 0.0651830901201 0.0465453835504 -0.11587374136 0.0182484211391 0.0201984034097 -0.0230247222887 -0.121311294473 -0.0333310096221 0.02623677148 0.191354231018 -0.0407203225653 -0.00166086229216 -0.0367083718045 -0.0626145173024 -0.0474963776386 -0.000609827181006 0.0460494445773 0.0386779072245 0.117599751191 0.0216506691481 0.0354747458284 -0.0360897812574 0.0612795704608 -0.0432444564069 0.0233553482707 -0.00157788583602 0.0597562023607 0.00543773086955 0.045464627652
, 0.0583341446532 0.0646245100031 -0.00413436653397 -0.0874985226684 -0.00712774311209 0.0155960080482 -0.0179199015917 0.0099300826931 -0.0388332961194 0.0705489703624 0.0359089331742 0.106848152386 0.0251905499443 -0.0953417140254 -0.024475521829 0.0538882313856 -0.122383111386 -0.0587877825638 0.0589380780377 -0.0933709559799 -0.0113215022505 0.182414278208 -0.0239293056403 -0.0300903034131 0.0565178916723 0.0588337712609 -0.0915255820859 -0.0817453576052 0.0782874023686 0.023702618907 -0.0417417770259 0.106289211075 -0.0397974959212 -0.0391104876185 0.000754671010717 -0.0509091168973 -0.0322702133799 0.0168702400956 -0.018441308901 0.132361017809 -0.140693557908 0.0124263139687 -0.0778230337592 -0.0196534758648 0.0348675540625 -0.119596061126 0.0888248936747 -0.12196710072 0.0337997257645 -0.102277609262 0.0445864604027 0.0382136144892 -0.0849536917422 0.16377895571 0.0436266717071 -0.058672372071 -0.0492165549763 -0.0104001322347 0.136079377896 0.0745658289181 0.0524632338971 -0.0155934145859 0.056308966022 0.0824145094132 0.0276291659373 -0.0300068291792 -0.088313803563 0.10388528022 0.0644170461184 0.0457462022157 0.0675082277054 -0.0337512996345 -0.0861319231177 0.0580958977011 0.0762362477666 -0.03684217674 0.0604459507312 -0.0105609538417 -0.0698761433156 0.035884438784 -0.0248711421923 0.0681558988967 -0.0484488765229 -0.0165069267478 0.0584190990538 -0.0403188656279 -0.0656482020238 0.0285458825892 -0.0698656682242 0.00785859428653 -0.058372979154 -0.0179411345007 -0.076718347459 -0.00639248158534 0.00352018213311 0.023872555208 -0.0132919244276 -0.143132185799 -0.0525592991589 0.0261753051488 0.0944753339783 -0.00739741434607 -0.0699954366027 0.00945639110201 0.087362905201 -0.0402633374555 0.034579399832 0.190998181856 0.0342844380719 0.0266557094096 -0.00474298587314 -0.0270050653062 -0.00547904208839 -0.0366705492565 -0.0799073872134 -0.0837133935413 -0.0377761377132 0.147944102707 -0.0633298705293 -0.0102116201052 0.039249239099 0.163838595745 0.0734529368293 -0.0158475892238 0.0936090060352 -0.0925718788947 -0.0446988206703 0.0228496248788 0.0861410567836 -0.120650092829 0.0123645731249 -0.130895998063 -0.00841544686218 -0.0663637126992 0.134796829838 0.0525850593648 -0.0070819361334 -0.0613956782655 -0.0751524015614 -0.0240212755035 0.185714156487 0.00656681430033 -0.0513770186739 -0.0179210898302 0.121107688367 0.0162902438573 0.0291929050663 -0.12493581982 0.00245565985297 -0.0423670419112 -0.0257901958655 -0.0183879636596 0.0390152422678 0.0419732072 0.0979376623702 -0.113250402184 -0.0130555681476 -0.00188644990502 0.102544701246 -0.0753692332459 0.013689227743 -0.00201970913436 -0.0168351393038 -0.0703587211621 -0.0258732826637 0.0106754719764 0.0635906815657 0.158512627094 0.0766121163113 0.0433255869628 -0.00835135923627 -0.0386944729856 0.0837293594477 0.0502415947276 -0.0547904780221 0.0708718846647 0.0201646214143 0.0707480632372 0.0554003018067 -0.0276194149796 0.117190432873 -0.0727779656818 -0.182298966958 0.0949165635948 -0.00190898261036 -0.00736656067713 -0.0840479523088 0.000956385273686 -0.0468290408458 -0.0831127936382 -0.106132107856 0.0215524216133 -0.0111050988911 -0.0914670895931 0.0492923740761 -0.0110767412691 -0.0579567888254 -0.106599036452 -0.0670878741534 -0.0676548274817
. 0.0158807938538 0.158889005557 -0.0322280833911 -0.104713754096 0.0360474113568 0.0649183584166 -0.0370362674345 -0.0199462684195 0.0725182132178 0.0186284955167 0.0668857454046 0.0598154442327 -0.0437984885137 -0.0167242178317 0.0508066222825 0.123781260158 -0.0395026414151 0.146774221566 0.0726796101213 0.0636971299074 0.0669496480486 0.144259360025 -0.0447710842677 -0.0592987334989 0.0822290292035 -0.133603011948 0.134317163095 0.0790174318804 -0.0157129120162 -0.143048661241 -0.00406902574242 -0.0373839246585 0.0108759899792 -0.0395677948872 -0.143496601268 0.0464878503151 0.076355870091 0.0419690313926 0.0115662180434 -0.00565714495067 0.0896608205142 0.0230012375528 0.0113413202236 0.104252625756 -0.046385391264 -0.066919075341 0.0693001417712 0.0535657244451 0.120376319563 -0.0732247601144 0.0468363189903 -0.0522472412392 -0.0785778790202 0.165564076845 0.0050372878416 -0.0102826696886 -0.0195862988532 -0.0232375832515 -0.0800282282012 -0.0110780799418 -0.064101480451 0.0544075343401 0.146740346973 -0.0241226215421 -0.0439459062244 -0.0550766663073 0.151864783579 0.0611097083653 0.0417587584279 -0.0658630840835 0.00599971194219 -0.0450317945067 -0.0291788572851 0.0818940620739 -0.0201288858429 -0.0495851971822 -0.0681701712732 -0.11196859162 0.00652066244608 0.0623073986171 0.0350254753756 0.0806079510743 0.108391269099 0.0651127448552 0.0806582881306 -0.0217306680465 0.0746336467018 -0.0819446705152 -0.0198384119785 0.00440150226223 0.0941729560746 -0.0496133678239 0.0895088715012 0.097735269971 0.0425355378149 -0.0612750690036 -0.122282188844 -0.0168435724625 -0.0804115857261 -0.0113167457021 -0.0755272524135 0.0814388626315 0.0230603252149 0.0535057926206 -0.0668955459977 0.0371521632125 -0.0575211738983 -0.0798547898249 -0.0655547909927 0.0121248584474 0.0351048470764 -0.0260890565808 -0.056148438547 0.0191591681258 -0.0251553732028 -0.0387129600719 0.149568703365 -0.0138316869422 0.0972679715223 -0.11374998253 0.0441475075986 -0.0891647834994 0.090043891069 -0.0802111002143 0.00184014657985 -0.0792897908194 0.000818543014805 -0.139188834385 -0.00270609257893 -0.103683092382 -0.0556636620164 0.0397763160777 -0.0613276685396 -0.0271473098786 0.0653678025323 0.0196585064487 -0.01041932202 -0.00674182010111 0.0541221130347 -0.02242107415 -0.0494449612251 -0.0968471218583 0.0461457470978 -0.0590432199241 -0.0544700891997 0.122614853964 -0.124574326582 0.0985022746044 -0.00428986447473 -0.0388145153405 0.0526287242668 0.113650433141 -0.21520217955 0.0257045260644 -0.044315968394 -0.00690922371954 0.0683106374693 -0.0143048314556 -0.00749785527528 -0.0653386036698 0.0307950215941 0.0556971982415 -0.0984326681857 0.0427184423067 0.0267259611492 -0.0142193113814 -0.0143720828311 0.0742951484174 -0.111209475114 0.0551995685254 -0.0407197742369 -0.0500670816717 -0.0268876440253 0.013236660373 0.109454355868 0.00948148564077 0.051354434297 0.0873091664459 0.0383891159149 0.0887976425164 0.163522046245 0.00401540239261 0.0466400693003 0.144648313524 0.0656839285029 0.0179787965503 0.0439178361786 -0.0441931163406 0.0802939457217 0.0129003937079 0.0536035068009 -0.000721712635943 0.0440871793823 -0.00426296368773 0.00576849724731 -0.0597544306268 -0.0457557589488 -0.00696006158432 -0.0129067256643 -0.0467178997238
of 0.00910151537548 0.0252920761325 0.0877366967919 -0.0472291694984 -0.00205305019638 0.0657308153059 0.0693892613289 0.0621492026802 0.017058304872 0.0343998131963 -0.0275230255358 0.0401239639522 -0.0122594872362 0.0414397242757 0.00863018399623 -0.0322185453552 0.00750680462667 0.0466643380183 0.0648256399175 -0.0628996230164 -0.0556096982972 0.0440276023595 0.0698835069481 -0.0407016565321 0.00470533733094 -0.0134764621553 -0.0918876405723 -0.0417357143151 0.0671535755349 0.026594891303 -0.0337872163357 0.0561415824405 0.018586834696 0.0624261644206 -0.0929432244671 0.126742753913 0.0349250174403 0.029702440328 -0.0499099890914 0.0605827980713 0.00661042769644 -0.0893632464981 0.171790476322 -0.0230115737481 0.0826883878403 0.0364305208002 0.0236635718772 0.141532089111 0.110685775464 0.0161950072034 0.070828154389 -0.133508501461 0.0967083315693 -0.0327776060533 0.154360327826 0.0893188181761 0.0270369207779 -0.0854602370846 -0.0212324394947 0.0231199015262 0.0594685954973 0.00988789805942 -0.0780659691193 0.0403701152613 -0.00313883872707 0.068859720942 0.0274042263061 0.0466611556073 -0.107710254494 -0.00902133130131 -0.00686149579204 0.0217375356021 0.0143931688379 0.0651929498448 0.132429415574 0.0718687013795 0.00272740353584 -0.0556341838241 -0.0205579342328 0.032831088168 -0.0740610163893 0.108185304789 -0.185082763578 0.0628819127256 0.0197563957875 -0.0355530972177 0.185493845392 0.0128417743839 0.108059069459 0.115092810324 0.0530874480524 -0.0732161983077 0.058377874705 0.00787419078826 -0.0581424575255 -0.0445027935456 0.0632175834408 -0.0177049883903 0.0694153218104 -0.0581075210496 -0.0469879974072 -0.0180035504082 0.0144470436385 0.0530944311199 -0.013815639917 -0.0996253125478 0.116141213491 0.13808239271 -0.0419681800941 0.141772666009 -0.03352014444 -0.0318637565556 -0.00986273924234 -0.0234368263933 0.0882450074257 0.0270316930881 -0.147094410043 -0.0551976808873 -0.0558664040542 -0.141269121169 0.0313904156728 0.0407666756538 -0.0113195818024 -0.0324642839942 -0.028291258673 -0.00501777156331 0.113013484007 0.0481467351771 -0.0342266865508 -0.0116252905891 -0.162953872228 0.0549283613021 -0.114009254884 0.181468096851 -0.115202312495 0.0431360419314 -0.000742799098033 -0.141779212239 0.0141101701957 -0.109298499338 0.028640171089 0.0302517859146 -0.0797530687815 0.0423778572502 -0.0520991823554 -0.128571143747 0.00990970862066 -0.0456891149533 0.0206841386354 0.084758565049 -0.0957974681942 -0.00382282449825 -0.0942266901585 -0.0667426277042 0.0632869638231 0.0395174743292 0.0115551520159 -0.00906128741297 -0.0312388485843 -0.0335801502164 0.122492456013 0.0080216537825 0.037218858822 -0.0307701313065 0.0378838444438 0.0116319215047 -0.126015397875 0.00417544356708 0.0729715385925 0.161716577655 -0.0797102032748 -0.00956119593667 0.00305923798154 0.0955812538108 0.0214126599263 -0.0768365106562 0.113451023409 0.0619155882655 0.00580148310291 -0.0212485114533 -0.053544314119 -0.0173292126342 0.10079254357 0.033715165756 0.00169482185114 -0.0635635213919 0.0150429657245 0.0479802089273 -0.0174521266002 -0.0519125143657 0.000764015678301 0.0582614778767 0.0208812872881 0.0233491550515 0.0655399046627 -0.114223275227 0.0966566371994 -0.0619133486932 -0.102822440967 0.102618890263
to 0.128444384058 0.036368625332 -0.0503514562238 -0.00285359653541 0.0803405151553 -0.0606906939391 -0.0198856849407 -0.0575658217991 -0.0240164959541 0.146902830468 -0.0678774320047 0.0348949898463 -0.00508662376785 -0.098781906985 -0.0833268221057 -0.16129754143 0.0226911656806 0.0211179657435 0.0665519327299 -0.1128985859 -0.0825541619427 0.108224000221 -0.138039941238 0.118904320217 -0.0475503957998 0.0354215709656 -0.0241974453702 0.0095736341749 0.01603400666 0.0695437290849 0.0403023113807 -0.0824925979833 0.0300482494212 -0.0393135642103 0.0640784004213 -0.177407931835 -0.0536734744204 -0.0566067632741 0.00201007458279 -0.0149975691113 0.145467385588 0.100078226395 0.113062384135 -0.00707962622685 -0.0460102131662 -0.00105812451219 0.0149809492916 0.00810046335537 -0.0496765628641 0.0163570571896 0.0681680344744 -0.042158744746 -0.0801537397068 0.078725216403 0.240061028737 -0.0663020760993 -0.0220859387943 -0.0297852822326 0.0943033347682 0.097525632273 -0.073805621504 -0.0481872740793 -0.00661869097175 0.0130792589417 0.0407521019942 0.0209090376126 0.0162328220907 0.114673421276 -0.0594164426146 0.0377186196936 0.0341653261406 0.0693960987043 0.0954306250041 -0.0628951636705 -0.0409199854197 -0.0109038334664 -0.0315665292583 -0.0121365478399 -0.095492612022 0.0476745535734 0.0425888415772 0.026938129796 -0.0425100113249 0.04107278521 -0.0586314383532 -0.000291558185648 -0.0440648860278 -0.14816769629 -0.0460526211741 0.1131692221 0.107470271888 -0.0029497847161 -0.0114428726683 0.0427229955269 -0.00641030287911 -0.0135111540992 -0.0940003624786 0.0728439093981 -0.0355340060726 -0.0131122780211 -0.0444582774773 -0.0407353538061 -0.0716933416884 -0.010363191276 0.134624697512 0.0532227624185 -0.0224834651669 0.0354177486329 -0.149784861416 -0.179433422855 0.000842234126402 -0.0155401381594 0.0292411785422 0.00381813063713 -0.0456775058352 -0.0606033201389 0.0326953049964 -0.0200727050618 0.0297067825031 -0.00324118686607 0.084003243733 -0.16284067592 0.0732665083807 -0.0584084463203 0.0554699247355 0.00812741166588 0.0175543144275 0.163740807472 -0.0172012638462 0.0691601701486 -0.0226216183293 0.0907189032424 -0.0556172148178 -0.0590851616538 -0.0464008735789 0.176903531394 0.00304752152508 -0.0571408518576 -0.010955168881 -0.0917520358738 -0.00938402179064 0.0568579129792 0.107594749407 0.0561970940881 -0.0425861301946 -0.0432880193523 -0.112426124062 0.0109249722727 0.0153312404296 0.0622244605737 0.120565253327 -0.0229475199957 0.0201467120853 -0.0453952167463 -0.136023045159 -0.0175800273621 -0.019829388134 0.0778936789694 -0.0697733987959 0.0745941639611 -0.0402187029552 -0.0929771804665 0.0369744371971 -0.0615057473344 0.0295630724072 -0.0238933196244 -0.0107813511872 -0.0404725357186 0.0348089654148 0.0656144177769 0.0841730041543 -0.0541418204955 0.0182135754882 0.00956726289758 0.0615862895727 0.00655822763424 -0.0907111017448 -0.0523344500749 0.148627281372 -0.0774667296288 -0.0359482048974 -0.0357778462008 0.0332706023771 -0.0647376924014 -0.000162697748963 0.0936508718716 -0.00720331825816 -0.0839581324705 -0.0117735337349 -0.0810681292557 -0.0710633462726 0.0645750619953 -0.0527742283048 0.00608687320614 -0.0598918487174 0.0496052540979 -0.0190337315766 0.11788118987 -0.0325021229911 0.0824603335472
and 0.00654595461229 0.0347402823961 0.0138854728457 0.133862761807 -0.00538256380948 0.0113102173606 0.113492482963 0.0186778673749 -0.178964892058 0.0148208806202 0.00860940238784 0.0218381850239 -0.0107084468398 0.0493162666574 -0.0684395016401 0.075847481036 -0.00625209676634 0.0355475854902 0.132134868608 0.0218643115055 0.14405500009 0.071424916609 0.0831293747951 -0.070550294417 0.0318798774045 -0.0332818997181 -1.57724482798e-05 -0.0711460666728 -0.0179147051147 -0.0618793713114 0.0439048760466 0.0717224785468 -0.0470633118711 -0.0408038512132 -0.0704435538406 -0.07964446726 0.0758800045174 -0.0212617741821 0.026415628914 0.0681097494634 0.144690846322 0.0416190784316 -0.0645156645999 0.0431239029324 0.0601011682726 -0.124000174171 0.000696847873681 -0.163366355639 0.0213904831935 0.148511679776 0.00806397120009 0.163887465615 -0.0616208516316 -0.028589170063 0.0297231979439 0.0158626891245 0.0451580449994 0.0706432310093 0.0131322072195 0.00241519815001 0.0401400383797 0.0710430359722 -0.0961093389664 0.164627217347 -0.00449926747521 0.0505348736023 0.0438978825244 0.0679757716555 -0.118976178454 -0.0969408980704 -0.0103643544214 -0.047520827159 -0.0399322833472 -0.0524425821728 -0.133067793173 0.0023611101468 -0.0829581852691 -0.0579584678995 0.126726478491 -0.0138021351012 0.0257693138362 -0.0564108904037 -0.16348059199 0.0500761766605 -0.0280228065194 0.0161559911106 0.070727955041 -0.0204376097374 0.0408346218044 -0.0290780847925 -0.0125697760755 -0.0933895341479 -0.0302966501679 0.11592693541 -0.0783316199297 0.0258627107526 0.0360734695036 0.0207337351393 -0.0673494186771 -0.0141705391001 0.0773909000156 -0.0590632167852 -0.0339339875335 0.0458350203913 0.00342200269953 0.0896684614694 0.0283387958215 -0.0496127683362 0.063213969024 -0.0663586708652 -0.0510793908783 -0.0828064871301 -0.00350313945778 0.0204888120104 0.110124592438 0.0257912199986 -0.0182982652096 0.0507423395328 0.0156504853565 -0.0804238000625 -0.0960402301153 -0.0329567957604 -0.00476058152014 0.079060339616 -0.0330766279632 -0.0176320110806 -0.00894817860866 0.0973985955487 0.01717215793 0.0878549684218 0.0205607523369 -0.0183957119164 -0.0430509803331 -0.0938315643454 -0.0297664668471 0.0296219271929 -0.0436501948808 0.0867458535813 0.0562865913492 -0.0295402732142 0.0301671964964 -0.0442227543949 -0.0686803852756 -0.0522642693849 0.000596534839071 0.0972255610427 -0.0226786206412 -0.0683840004281 0.132201016883 0.0877212946112 0.00820936097714 -0.082156261225 0.0128260089441 -0.0984603449758 0.0359162840627 0.02642113883 -0.0477788485487 0.0611300377789 -0.0357563287895 0.032134308707 0.166378624438 0.076686362981 0.0467374291342 0.165851956532 0.069285461691 0.136667019074 0.0866419745499 -0.0153475167954 0.00800241365184 -0.000158390054044 -0.0722985210542 0.0558977849581 -0.0293155522485 0.0704457861553 0.0233860627225 0.0984738514903 -0.160769979909 -0.0872981294681 -0.105134603045 0.0639362341843 0.015643204771 -0.0136438569509 0.00575882250374 0.0495787619242 0.109493396975 0.0685828497216 0.053004386345 -0.0794055638733 -0.0096167813426 0.0111711239014 0.0182786746357 -0.122801931909 -0.172494331956 -0.0361045149402 0.0158102607163 0.0633303451307 0.0734715976659 -0.051190835099 -0.129909076578 0.0344330953602
in -0.0594636746134 -0.00171055333547 -0.0527944350672 0.00845998218077 -0.141223298528 -0.183141943382 0.120860733837 -0.00503309017205 0.0206636015622 -0.028091753984 0.0534233317383 0.00880642576818 -0.0503053054211 -0.0419947325067 0.0191759797602 -0.00849547484434 0.0233425166227 0.0358148502428 -0.0062495097574 0.0178496185196 -0.00527290770751 0.100199297086 0.0208273503792 0.0513398555909 0.0326678046239 0.057541679762 -0.0170725598101 0.0136757522625 0.0971888501379 -0.0435388898094 -0.0408492982683 -0.108584330475 -0.0287999668712 0.0791521537097 0.0276256919202 0.00514531837487 0.0222786153251 0.0186536157583 0.111830135539 -0.0608255860267 -0.077357854343 0.0502595215818 -0.0565814934902 0.0136768342161 0.0247632792895 0.0073844633705 -0.0873348142718 -0.0988814864746 -0.0343212044716 -0.0278278613908 0.0568928021828 0.203769335974 0.0819385132284 0.105854998813 -0.0219237938836 -0.057739031474 -0.013461989413 -0.074948997569 -0.110840621463 0.0606704752554 -0.0535905593921 -0.0709120166715 -0.0230832899571 0.0738423148416 -0.0356725960062 0.0537795051632 -0.101842194281 -0.158494151509 -0.0831954914977 -0.0287523548279 -0.118066328959 0.0888139670978 0.0328066326819 0.00510551410174 0.103687385279 -0.00555011748536 0.0484245248188 -0.0266007170221 0.0854840332487 -0.0227462395355 -0.0987777906921 -0.0631661441971 -0.00351239832187 0.151169389415 -0.0661947832747 -0.127035790951 0.0927157016544 -0.0116365256104 0.0637991747354 0.0920541781053 0.0199735865105 0.0170139241175 -0.0510323234785 0.0402693863675 0.000815631119109 -0.100883522121 -0.0165255296133 -0.0577791816636 0.0900105018516 -0.109438064205 -0.0405524101343 0.0149292536391 0.0632303521135 0.104164503587 -0.00308130128278 0.0399273668248 0.0120560268549 -0.0251299000861 -0.125861851919 0.0152544515874 0.0158273771957 -0.10891758221 0.000455745936965 0.0958951366894 -0.09029159579 0.0249105882379 0.0527729033131 0.00989233832573 -0.00264224136011 -0.164241846127 -0.0480332192732 0.0799495360625 0.0383670557203 0.0144939261451 0.021249426103 -0.0248156285085 0.0213794104538 0.0220821894636 -0.0338612944748 -0.0427543166754 0.0636556987229 0.0963957500556 0.123064795825 -0.0212009073867 0.0117799305286 0.033479443529 0.000897124343137 -0.0391385776023 -0.0575487334004 0.191463636981 0.0293645678345 0.0566405002369 0.00509505389166 0.0750574237506 0.00459586003128 -0.0269358403433 0.0943594524253 0.0180783240152 -0.0422377884185 0.103487388614 -0.0549993506359 -0.141843530255 -0.14236347815 -0.163075785894 -0.12052014211 0.00942029566611 0.0754253198367 -0.111050071601 0.0819825635644 0.0608661215169 0.0321296109552 -0.0463318122857 -0.0150256642952 -0.0723092970375 -0.0833958584325 -0.00669343684143 0.0457810594823 -0.0598890276517 -0.0253251725106 -0.00892035467427 -0.115290403493 -0.0888719682931 0.014051488818 0.000526242101429 0.0627600150823 -0.0893830332052 -0.0470197807498 -0.0150347144998 0.0499690312004 -0.0990986386957 0.0522492634407 0.0963175992124 -0.0909334907416 0.11867717305 -0.000613791182212 -0.0250243245022 -0.0506530370752 -0.00433389390283 0.0217455014733 -0.0884311204355 0.0500255396213 -0.0489441852458 -0.0220842481678 -0.0504606417667 0.0608432972295 0.130857269938 -0.0215843877037 0.110271895185 0.117794905248 -0.0689417900828
a 0.0375705218485 -0.144183886537 -0.0372815946413 -0.2081610537 0.0592963151429 -0.158781221584 0.0504120078957 0.018106467769 0.03837348264 -0.112987810258 0.0120547285245 0.00381901989229 0.217714173529 -0.0102808052556 0.0860021548108 -0.0745590162566 0.0744714570365 -0.0868944273819 -0.032531719606 -0.0513975906365 0.103615591482 0.0730288862899 0.0380336313726 -0.0230952277623 0.102907006002 -0.130632430304 0.0312497850382 0.0162692651431 0.0248726408599 -0.0143822493993 0.0482826900931 0.0667470781079 0.0602985658979 0.0124094024811 0.00828902994681 -0.141464643398 0.083720241824 -0.161887351125 -0.0463506524707 0.0642275249198 -0.0324409349282 0.0814993560043 -0.0487716669567 -0.0244721493762 0.0215868349015 -0.0814705507332 -0.074705962707 0.0516108878691 -0.0692504116474 -0.0163279429791 -0.0576977430392 -0.0357018771485 -0.105743800172 0.014212252249 0.0261154833465 -0.0484262564618 -0.0603318570759 -0.0619778682993 0.031200870063 0.00858205006609 0.0143944205931 -0.0179709092943 -0.0724791373099 -0.104587256395 -0.00867779898105 0.0288283243626 0.110103745125 -0.0600053927796 -0.101190394532 0.0232122307161 -0.0705088984027 -0.0131732934434 -0.0191450027749 -0.0640841073569 -0.137797628896 0.0615272010611 -0.0092908567329 -0.100989502331 -0.0646646583415 -0.105945672173 -0.0168932871622 -0.0834375538401 -0.023181161828 -0.108098157358 0.0085828370758 0.0113601084147 -0.00378244495258 0.0414123097373 0.117086658382 0.00404231083606 0.0700459668986 0.016176014723 -0.0495595798591 0.106743358809 0.030903487505 0.0216047097935 -0.0389182417341 0.022836660716 0.00370663564581 0.0922993717605 0.0240891828366 -0.0948013717358 0.0848513176649 -0.0297311575401 -0.0852084624771 -0.0384093885212 -0.0496195137499 -0.0283278915506 0.0261695934787 0.0437172512706 0.014968205141 -0.0820770678762 -0.053102583891 -0.0559247496436 -0.0674943019204 -0.0101937042128 -0.0588337536542 -0.16512343074 -0.0562013070046 -0.0674319384676 -0.0773417515131 -0.13306349448 -0.0130497190244 -0.120223796879 0.023903378167 0.0294815449714 0.0802313404647 -0.00234474852574 -0.01726204311 0.147720313316 0.00737029466575 0.00811711813803 0.00865597041647 0.013230538555 0.113834736372 -0.0212392645561 -0.0526157862665 0.0190375934167 0.0148525765694 0.0315797999691 0.0104970193924 0.0209212662128 0.101174492774 -0.0485313304581 0.149654187068 -0.117205064297 0.103727781857 -0.0830901577731 0.0954324636214 0.00186958690317 -0.0927267163406 0.028122608608 -0.0138938603116 0.0477767125032 0.023587723713 -0.0639316797517 -0.00915162663229 -0.0506422865649 -0.0305991442345 -0.101783781617 0.0293675555558 0.0171163658172 0.0781132172988 -0.0431953697054 0.0137439557661 -0.168261444076 -0.0430975138526 0.102581966194 -0.0718499265419 -0.0358409509678 0.0327071551676 -0.0844602208504 0.0730232587471 0.182560879257 -0.0579158747518 -0.0161102744708 0.0241046002891 0.0336277329746 0.0171664955085 0.0869777521104 0.0453889321202 0.0803234787241 0.115347074993 0.0404162603772 0.0991491019371 0.00187612670582 -0.0600339781139 0.0354736425384 0.007326142307 -0.0348121492232 -0.0681829972402 -0.0626928100071 0.0870210738551 -0.0697747355506 0.0216250879134 0.0673866685529 0.0148397543875 0.0139972705643 -0.0265044425885 -0.0260897795562
" -0.00747110796448 0.012194436821 -0.102234938816 0.03327788069 -0.0558619846082 0.0155523281597 -0.0122435336796 0.0139300206687 0.162442954339 0.0237302056566 -0.0540071991443 0.0200999882762 -0.127147530922 0.0523961457437 0.0309793590863 -0.0733394876322 -0.0417014494115 0.11569435554 0.127863647078 0.0248802167821 -0.00207780566833 0.0979189726918 -0.0195252569643 0.00906882216748 -0.00932128866584 -0.0497735112013 0.115174642955 -0.11781112044 -0.0764386908364 0.117358154188 -0.0277982471416 0.0267195416235 -0.0386176109359 -0.035516630393 0.14406079171 0.0411547991208 -0.00910237536757 -0.142929249502 0.0119677335034 -0.0753301177188 -0.0014499716515 0.121229521643 -0.108220041324 0.00332277383709 0.0116945444135 0.037097388544 0.0444089856169 -0.0807643507364 0.159047833774 0.0228804075578 0.0962362338286 0.0637271949456 0.0160214685481 -0.143213108032 0.00549274987619 -0.0196657461994 -0.0388644190984 -0.0144064244412 0.00730223696941 -0.0536694474623 0.0498609919375 -0.0757928642219 -0.0553410756757 0.058233604342 -0.0788565645211 -0.0403273501837 0.0241627373891 -0.00762778270964 0.046832904689 0.046542914039 -0.0176300779097 -0.0256902995841 -0.019190810109 0.028104084061 -0.0741899760653 -0.0980074042443 -0.0192743420097 -0.0117088497463 6.83676050547e-05 0.0277342206877 0.123300531913 -0.0165823693035 0.0446633565298 0.0787169283103 -0.104315532069 -0.0424107831566 -0.0253511881112 0.101304228612 -0.0389351476447 -0.0152171178319 0.0757197971808 0.0013730302355 0.0039155347162 -0.0796802334531 -0.0174899415334 -0.0519036078631 0.0512179189332 0.0181992183116 -0.0228427261632 -0.0119770178389 0.0904240597708 0.0675739492757 0.0489745147947 -0.0713400630801 0.0796709679155 0.00210503835672 -0.0498283362902 -0.0463557700276 -0.0318686205831 0.171717639079 -0.126429333586 0.00665362915957 0.0903784156847 -0.0635511866484 0.0370997080115 0.102854391429 -0.00426509419541 -0.0463103784667 -0.0310843109639 0.0450527336479 0.0739704838852 -0.040609607106 -0.00469957506839 -0.132797575787 -0.0383509955386 0.0115730682227 0.0274787239187 0.0733518395662 0.121085060858 -0.0370938529804 0.0516339545475 0.00932198368997 -0.0797711560308 0.12216966424 -0.040186002992 -0.137543005676 -0.107942691369 0.038416213129 0.0538638960836 0.0594684754668 -0.0238816161384 0.140125694957 -0.0394158547819 -0.0928044729894 0.0295032750446 0.0776354329399 -0.0626367255347 -0.0130846221612 -0.0202090294706 -0.00878329596105 -0.09629345905 0.140596374839 -0.00835808307798 0.110242932566 0.0584438926405 -0.0253062768355 -0.0487904184321 -0.101651340927 0.0289925200274 -0.0125325660481 0.0231559701188 -0.04941943584 0.0758732181358 -0.0328351376819 0.0371086651511 -0.0490862086567 -0.0384314875723 -0.0843592636882 0.168386340234 0.0211604086644 -0.0637515951988 -0.131662445616 0.141074568128 0.0100274626756 -0.0855073242304 -0.0581274084942 -0.179024693137 0.0811588525567 0.0998456229545 -0.0157061659604 0.139770337037 -0.000394111678533 0.0271568250512 -0.0302310103368 -0.0792954262278 -0.00717260364387 -0.0400855073017 -0.0923819089736 0.0857658280769 -0.0675925397918 0.0819953081012 -0.0984535291838 -0.0471709552899 -0.0651618084963 -0.0156442419426 -0.0605026931324 0.0340259018223 0.0185846064999 0.026545859868 0.134788090233
